svm_type c_svc
kernel_type rbf
gamma 0.5
nr_class 10
total_sv 46
rho 0 0.316275 0 0.26833 0.113054 -0.037709 0.229615 0.44695 -0.054703 0.275354 0 0.319841 0.168461 -0.00178398 0.282607 0.49106 0.00187252 -0.0987337 0.053287 -0.127735 -0.274918 0.0122244 0.262661 -0.286038 0.316425 0.164543 -0.00768515 0.278926 0.488158 -0.00206874 -0.160077 -0.323478 -0.0419233 0.20298 -0.318223 -0.172032 0.119729 0.45067 -0.161288 0.286133 0.493941 0.00576546 0.264365 -0.28077 -0.621743
distance 2.59396 2.02895 2.99864 1.69194 1.58548 1.58938 1.66607 1.80772 1.461 1.61181 1.48555 1.63094 1.5349 2.56154 1.60801 1.7336 1.42118 4.64204 1.9247 1.90994 1.59723 1.88677 2.1571 1.65493 1.63548 1.53824 1.42411 1.6123 1.73923 1.42406 1.8132 1.62761 1.96321 2.16976 1.63363 1.53156 1.78105 4.71705 3.83019 1.60412 1.72873 1.41902 2.32468 1.61018 3.57805
label 4 5 6 7 8 9 10 1 2 3
nr_sv 3 5 3 3 6 5 6 3 7 5
SV
3.364310175899601 0 0 0.7148302022734502 0.6271514520568157 1.067730951715784 0.6940200316476355 0.8161769977606141 0.5335564184844516 1:-0.818676 2:-0.662142 3:-0.714265 4:-0.802028 5:-0.770486 6:-0.852761 7:-0.818726 8:-0.814015 9:-0.848149 10:-0.888204 11:-0.882575 12:-0.867627 13:-0.869085 14:-0.874014 15:-0.882362 16:-0.873269 17:-0.865719 18:-0.858483 19:-0.853098 20:-0.853629 21:-0.852454 22:-0.848862 23:-0.855987 24:-0.852239 25:-0.847991 26:-0.847967 27:-0.845875 28:-0.843109 29:-0.8417 30:-0.842591 31:-0.846375 32:-0.848875 33:-0.847789 34:-0.845304 35:-0.843005 36:-0.839462 37:-0.836894 38:-0.831027 39:-0.829633 40:-0.827919 41:-0.826368 42:-0.824881 43:-0.822439 44:-0.820726 45:-0.820581 46:-0.817659 47:-0.814615 48:-0.812341 49:-0.814336 50:-0.813484 51:-0.816182 52:-0.816162 53:-0.818337 54:-0.817248 55:-0.819264 56:-0.819937 57:-0.821372 58:-0.824487 59:-0.825072 60:-0.825577 61:-0.825887 62:-0.825326 63:-0.825395 64:-0.823326 65:-0.822154 66:-0.820773 67:-0.81992 68:-0.81843 69:-0.816854 70:-0.816542 71:-0.81806 72:-0.817651 73:-0.817445 74:-0.81639 75:-0.815572 76:-0.815605 77:-0.815591 78:-0.814895 79:-0.813933 80:-0.81466 81:-0.81623 82:-0.816269 83:-0.816914 84:-0.815444 85:-0.81477 86:-0.813561 87:-0.812591 88:-0.812161 89:-0.811962 90:-0.809999 91:-0.808395 92:-0.807803 93:-0.807834 94:-0.807301 95:-0.807027 96:-0.806542 97:-0.807585 98:-0.807396 99:-0.807516 100:-0.806944 101:-0.807038 102:-0.807215 103:-0.809826 104:-0.812716 
0 0.4156627713577055 0 0.07896366317208783 0.07074838944924075 0 0.07739639698841591 0.0913099239221952 0.06722619859341721 1:-0.721996 2:-0.571644 3:-0.610503 4:-0.725839 5:-0.797266 6:-0.778141 7:-0.740959 8:-0.789096 9:-0.838386 10:-0.82677 11:-0.844014 12:-0.830207 13:-0.828293 14:-0.83496 15:-0.821783 16:-0.810499 17:-0.806424 18:-0.80386 19:-0.796453 20:-0.789899 21:-0.782536 22:-0.779727 23:-0.778236 24:-0.779757 25:-0.78692 26:-0.782201 27:-0.777416 28:-0.774022 29:-0.773197 30:-0.77572 31:-0.772293 32:-0.768702 33:-0.766001 34:-0.762885 35:-0.765422 36:-0.760696 37:-0.754244 38:-0.752676 39:-0.753965 40:-0.756464 41:-0.757271 42:-0.756069 43:-0.757317 44:-0.754947 45:-0.754606 46:-0.758438 47:-0.754484 48:-0.75112 49:-0.751612 50:-0.755322 51:-0.757479 52:-0.757334 53:-0.761304 54:-0.759431 55:-0.758003 56:-0.757221 57:-0.757465 58:-0.755633 59:-0.75422 60:-0.753333 61:-0.758971 62:-0.756295 63:-0.755569 64:-0.752698 65:-0.751127 66:-0.749557 67:-0.747911 68:-0.74567 69:-0.743533 70:-0.741422 71:-0.74028 72:-0.740503 73:-0.739643 74:-0.739507 75:-0.738545 76:-0.737506 77:-0.736267 78:-0.735435 79:-0.735654 80:-0.738032 81:-0.7383 82:-0.737564 83:-0.736762 84:-0.735534 85:-0.736139 86:-0.735649 87:-0.73438 88:-0.734814 89:-0.735846 90:-0.735226 91:-0.734145 92:-0.733338 93:-0.733359 94:-0.733351 95:-0.73541 96:-0.738631 97:-0.738063 98:-0.738179 99:-0.73705 100:-0.735925 101:-0.735142 102:-0.734532 103:-0.739923 104:-0.739988 
0 1.642294588323109 4.495933961510778 0.6377310753136347 0.5587621992317919 0.1955867134542288 0.6166236346592197 0.7262327909348727 0.4664445404866586 1:-0.733644 2:-0.577677 3:-0.612979 4:-0.725122 5:-0.796754 6:-0.763273 7:-0.749897 8:-0.829191 9:-0.82343 10:-0.817642 11:-0.823497 12:-0.837783 13:-0.818707 14:-0.803654 15:-0.793326 16:-0.795183 17:-0.80666 18:-0.807779 19:-0.800068 20:-0.797009 21:-0.790134 22:-0.79082 23:-0.78773 24:-0.784006 25:-0.778656 26:-0.7743 27:-0.77317 28:-0.769946 29:-0.769078 30:-0.770798 31:-0.77323 32:-0.775542 33:-0.772578 34:-0.769233 35:-0.766597 36:-0.764245 37:-0.757716 38:-0.752808 39:-0.753377 40:-0.757024 41:-0.757042 42:-0.755834 43:-0.757839 44:-0.756122 45:-0.757183 46:-0.760291 47:-0.756286 48:-0.752875 49:-0.750663 50:-0.754397 51:-0.758011 52:-0.757738 53:-0.757931 54:-0.756116 55:-0.754749 56:-0.758223 57:-0.75806 58:-0.757686 59:-0.757675 60:-0.757552 61:-0.756229 62:-0.754614 63:-0.754388 64:-0.751522 65:-0.75212 66:-0.751278 67:-0.748316 68:-0.746063 69:-0.745172 70:-0.743033 71:-0.741859 72:-0.7419 73:-0.74101 74:-0.739678 75:-0.738707 76:-0.737765 77:-0.737528 78:-0.736671 79:-0.736776 80:-0.738701 81:-0.738161 82:-0.738202 83:-0.737077 84:-0.735508 85:-0.735262 86:-0.735862 87:-0.734585 88:-0.7344 89:-0.733217 90:-0.734055 91:-0.732551 92:-0.734192 93:-0.733615 94:-0.73288 95:-0.733414 96:-0.733388 97:-0.736714 98:-0.736747 99:-0.735691 100:-0.735372 101:-0.734161 102:-0.734029 103:-0.733752 104:-0.738907 
-0 0.07836720894928925 0 0.3726900277476611 0.3301448030353502 2.255593095288596 0.3057309289063316 0.4039109774814738 0.28898902576121 1:-0.912638 2:-0.918552 3:-0.934109 4:-0.91199 5:-0.855676 6:-0.959879 7:-0.951811 8:-0.939979 9:-0.932701 10:-0.928152 11:-0.925005 12:-0.919221 13:-0.918107 14:-0.914498 15:-0.913746 16:-0.913029 17:-0.912526 18:-0.910348 19:-0.915284 20:-0.914826 21:-0.913787 22:-0.917978 23:-0.918633 24:-0.925106 25:-0.926367 26:-0.927606 27:-0.926452 28:-0.928115 29:-0.927037 30:-0.925919 31:-0.924963 32:-0.9241 33:-0.923531 34:-0.925363 35:-0.924763 36:-0.923462 37:-0.921111 38:-0.917945 39:-0.915864 40:-0.915517 41:-0.915112 42:-0.914847 43:-0.914095 44:-0.915665 45:-0.915004 46:-0.913244 47:-0.912609 48:-0.91141 49:-0.91105 50:-0.910975 51:-0.910897 52:-0.910423 53:-0.910287 54:-0.910085 55:-0.910029 56:-0.909979 57:-0.911456 58:-0.911182 59:-0.911047 60:-0.910918 61:-0.910823 62:-0.91023 63:-0.90997 64:-0.909289 65:-0.909076 66:-0.908496 67:-0.90777 68:-0.907296 69:-0.90811 70:-0.907937 71:-0.907812 72:-0.907735 73:-0.907699 74:-0.907434 75:-0.907243 76:-0.90713 77:-0.907702 78:-0.907631 79:-0.907424 80:-0.908564 81:-0.908593 82:-0.909801 83:-0.910071 84:-0.910642 85:-0.911439 86:-0.911048 87:-0.910768 88:-0.910728 89:-0.910835 90:-0.910073 91:-0.909836 92:-0.910418 93:-0.910248 94:-0.91014 95:-0.91015 96:-0.910059 97:-0.909909 98:-0.910133 99:-0.909723 100:-0.909239 101:-0.908829 102:-0.908607 103:-0.908339 104:-0.909606 
-0 0 0 0 0 1.025189254137046 0.0305548321862032 0 0 1:-0.909532 2:-0.897436 3:-0.9219 4:-0.909629 5:-0.882956 6:-0.956935 7:-0.97373 8:-0.971569 9:-0.95736 10:-0.94806 11:-0.941508 12:-0.933209 13:-0.926946 14:-0.922055 15:-0.922809 16:-0.921047 17:-0.919649 18:-0.91683 19:-0.916038 20:-0.915304 21:-0.917566 22:-0.91694 23:-0.9239 24:-0.922278 25:-0.926115 26:-0.92775 27:-0.928935 28:-0.927939 29:-0.926718 30:-0.927687 31:-0.926524 32:-0.925475 33:-0.924728 34:-0.923839 35:-0.925644 36:-0.924205 37:-0.921726 38:-0.918438 39:-0.916233 40:-0.915768 41:-0.915253 42:-0.916664 43:-0.915775 44:-0.91522 45:-0.914474 46:-0.912633 47:-0.910792 48:-0.909541 49:-0.909135 50:-0.909411 51:-0.910611 52:-0.910062 53:-0.909855 54:-0.909584 55:-0.909463 56:-0.90935 57:-0.909262 58:-0.908957 59:-0.908794 60:-0.908638 61:-0.908518 62:-0.907888 63:-0.9076 64:-0.907195 65:-0.907962 66:-0.907332 67:-0.906878 68:-0.906353 69:-0.905859 70:-0.905367 71:-0.905223 72:-0.905128 73:-0.905076 74:-0.904792 75:-0.905737 76:-0.905591 77:-0.905015 78:-0.904929 79:-0.904703 80:-0.90646 81:-0.908822 82:-0.908585 83:-0.908352 84:-0.90821 85:-0.907886 86:-0.907482 87:-0.907192 88:-0.907153 89:-0.907614 90:-0.907882 91:-0.907613 92:-0.90747 93:-0.907288 94:-0.907171 95:-0.907175 96:-0.907411 97:-0.907247 98:-0.907129 99:-0.906709 100:-0.906216 101:-0.905787 102:-0.90682 103:-0.907179 104:-0.908389 
-0 0.3541880608407941 0 0.3776198676014047 0.338523973338814 0 0.4511154368519783 0.4270196766453816 0.2979792774567128 1:-0.906814 2:-0.903469 3:-0.923547 4:-0.903571 5:-1 6:-0.978933 7:-0.969966 8:-0.958249 9:-0.945469 10:-0.937182 11:-0.931363 12:-0.923593 13:-0.917802 14:-0.91607 15:-0.914316 16:-0.912768 17:-0.917274 18:-0.914157 19:-0.918189 20:-0.916946 21:-0.915228 22:-0.913518 23:-0.913149 24:-0.911707 25:-0.919405 26:-0.9238 27:-0.923954 28:-0.922931 29:-0.921665 30:-0.920364 31:-0.919264 32:-0.918252 33:-0.920202 34:-0.919259 35:-0.91855 36:-0.917084 37:-0.914544 38:-0.911194 39:-0.909014 40:-0.908588 41:-0.90849 42:-0.909848 43:-0.908944 44:-0.908399 45:-0.908822 46:-0.90695 47:-0.905082 48:-0.903804 49:-0.90338 50:-0.903266 51:-0.903152 52:-0.902608 53:-0.903906 54:-0.903792 55:-0.903671 56:-0.90356 57:-0.903474 58:-0.903157 59:-0.902991 60:-0.902832 61:-0.902711 62:-0.902048 63:-0.901748 64:-0.90099 65:-0.900742 66:-0.902701 67:-0.902353 68:-0.904148 69:-0.903583 70:-0.903021 71:-0.902816 72:-0.902665 73:-0.902559 74:-0.902218 75:-0.901962 76:-0.901924 77:-0.901593 78:-0.90147 79:-0.901203 80:-0.902303 81:-0.902291 82:-0.902575 83:-0.902334 84:-0.901782 85:-0.901449 86:-0.90103 87:-0.900733 88:-0.900703 89:-0.901399 90:-0.901004 91:-0.901403 92:-0.90225 93:-0.902452 94:-0.90232 95:-0.902315 96:-0.902201 97:-0.902022 98:-0.902535 99:-0.902096 100:-0.901585 101:-0.901123 102:-0.900866 103:-0.900558 104:-0.901466 
-0 0.1691161388194508 0 0.1741031837769383 0.1632043839482492 0 0.1069233922953947 0.2070276022767283 0.1226495701908875 1:-0.903708 2:-0.870287 3:-0.913761 4:-0.900664 5:-0.964315 6:-0.951166 7:-0.966034 8:-0.975454 9:-0.958507 10:-0.947372 11:-0.939515 12:-0.93376 13:-0.92946 14:-0.930768 15:-0.929632 16:-0.929657 17:-0.926847 18:-0.922938 19:-0.922486 20:-0.922822 21:-0.922224 22:-0.921537 23:-0.919782 24:-0.917843 25:-0.921407 26:-0.928037 27:-0.926582 28:-0.927367 29:-0.925768 30:-0.924166 31:-0.922769 32:-0.923438 33:-0.923187 34:-0.922377 35:-0.922269 36:-0.920592 37:-0.917866 38:-0.914337 39:-0.911951 40:-0.911324 41:-0.910649 42:-0.911697 43:-0.910647 44:-0.909956 45:-0.909068 46:-0.90709 47:-0.905122 48:-0.904433 49:-0.903902 50:-0.903685 51:-0.904111 52:-0.903462 53:-0.903183 54:-0.902838 55:-0.902656 56:-0.902485 57:-0.902343 58:-0.903077 59:-0.902837 60:-0.902607 61:-0.902417 62:-0.902203 63:-0.901829 64:-0.901 65:-0.900683 66:-0.899968 67:-0.900063 68:-0.900855 69:-0.90077 70:-0.901085 71:-0.900847 72:-0.900663 73:-0.900972 74:-0.900593 75:-0.900301 76:-0.900935 77:-0.900283 78:-0.900535 79:-0.900222 80:-0.90021 81:-0.90057 82:-0.900299 83:-0.900418 84:-0.900596 85:-0.900223 86:-0.900138 87:-0.899799 88:-0.899731 89:-0.899422 90:-0.898545 91:-0.898931 92:-0.900153 93:-0.900619 94:-0.900459 95:-0.900431 96:-0.900629 97:-0.900421 98:-0.900265 99:-0.899804 100:-0.899596 101:-0.899103 102:-0.89882 103:-0.898801 104:-0.899362 
-3.364310175899601 0.6975891723381062 1.103434622952794 0.4058569813918705 0.3460300208299196 0 0.3985139509086807 0.4649423824906457 0.3002972518251045 1:-0.90099 2:-0.921569 3:-0.928973 4:-0.898299 5:-0.871156 6:-0.945317 7:-0.937552 8:-0.925728 9:-0.918385 10:-0.91386 11:-0.910747 12:-0.907103 13:-0.903939 14:-0.907834 15:-0.913165 16:-0.911322 17:-0.909867 18:-0.906804 19:-0.906001 20:-0.905251 21:-0.903882 22:-0.908033 23:-0.906931 24:-0.9132 25:-0.914356 26:-0.918073 27:-0.91669 28:-0.915792 29:-0.915761 30:-0.914487 31:-0.913437 32:-0.912455 33:-0.911805 34:-0.913532 35:-0.912859 36:-0.911372 37:-0.908783 38:-0.905384 39:-0.903224 40:-0.90283 41:-0.902364 42:-0.902058 43:-0.901513 44:-0.902698 45:-0.901943 46:-0.900095 47:-0.898255 48:-0.897 49:-0.897691 50:-0.897604 51:-0.897515 52:-0.896969 53:-0.896814 54:-0.896581 55:-0.896517 56:-0.896459 57:-0.896426 58:-0.896143 59:-0.89602 60:-0.897325 61:-0.897219 62:-0.896541 63:-0.896244 64:-0.895464 65:-0.895222 66:-0.894557 67:-0.895795 68:-0.895227 69:-0.894692 70:-0.89416 71:-0.894015 72:-0.893926 73:-0.893884 74:-0.893593 75:-0.893398 76:-0.893267 77:-0.893838 78:-0.895553 79:-0.896445 80:-0.896881 81:-0.896884 82:-0.896648 83:-0.896415 84:-0.895852 85:-0.89552 86:-0.895096 87:-0.895391 88:-0.895765 89:-0.896294 90:-0.896484 91:-0.896158 92:-0.896017 93:-0.895832 94:-0.895719 95:-0.895742 96:-0.895648 97:-0.895485 98:-0.895374 99:-0.894956 100:-0.895329 101:-0.896359 102:-0.896264 103:-0.895943 104:-0.894981 
-1.578705730759576 -0.6663856705200019 8 0.9264337543750609 0.7231475696777656 0.6387402281991026 0.8897920891383505 1.093567843708322 0.6106680600641182 1:-0.611726 2:-0.559578 3:-0.577294 4:-0.609091 5:-0.694744 6:-0.770264 7:-0.695653 8:-0.67429 9:-0.654012 10:-0.659272 11:-0.72519 12:-0.71468 13:-0.705042 14:-0.689989 15:-0.67938 16:-0.680485 17:-0.672029 18:-0.660152 19:-0.664046 20:-0.689842 21:-0.691327 22:-0.681988 23:-0.679088 24:-0.673067 25:-0.667017 26:-0.665771 27:-0.660561 28:-0.657293 29:-0.655906 30:-0.651107 31:-0.653667 32:-0.649804 33:-0.650255 34:-0.646789 35:-0.644302 36:-0.645729 37:-0.639968 38:-0.631 39:-0.628942 40:-0.62896 41:-0.626625 42:-0.627016 43:-0.6252 44:-0.622784 45:-0.619518 46:-0.615297 47:-0.613246 48:-0.609802 49:-0.609588 50:-0.618442 51:-0.622859 52:-0.622082 53:-0.626469 54:-0.625367 55:-0.628384 56:-0.632351 57:-0.634631 58:-0.636304 59:-0.635787 60:-0.634661 61:-0.63341 62:-0.632285 63:-0.630977 64:-0.627358 65:-0.628318 66:-0.625641 67:-0.62186 68:-0.623112 69:-0.62047 70:-0.617855 71:-0.619107 72:-0.618093 73:-0.618238 74:-0.620682 75:-0.620868 76:-0.619683 77:-0.618445 78:-0.618645 79:-0.617156 80:-0.616828 81:-0.620027 82:-0.620149 83:-0.620196 84:-0.618673 85:-0.617984 86:-0.615951 87:-0.616392 88:-0.619509 89:-0.619796 90:-0.618972 91:-0.617064 92:-0.617073 93:-0.61848 94:-0.618646 95:-0.618292 96:-0.618415 97:-0.617388 98:-0.617442 99:-0.616728 100:-0.615534 101:-0.614268 102:-0.612947 103:-0.613951 104:-0.614053 
-0 -0 3.982616110610416 0 0 0 0 0 0 1:-0.586488 2:-0.553544 3:-0.573317 4:-0.604245 5:-0.720206 6:-0.779277 7:-0.715062 8:-0.676066 9:-0.662141 10:-0.670374 11:-0.723086 12:-0.70278 13:-0.702251 14:-0.694105 15:-0.682643 16:-0.681745 17:-0.672791 18:-0.662523 19:-0.660337 20:-0.665493 21:-0.686621 22:-0.677216 23:-0.674158 24:-0.670085 25:-0.665746 26:-0.660825 27:-0.658931 28:-0.657108 29:-0.653241 30:-0.653479 31:-0.654866 32:-0.650768 33:-0.647906 34:-0.651372 35:-0.648558 36:-0.65123 37:-0.644872 38:-0.642657 39:-0.640114 40:-0.637823 41:-0.637239 42:-0.637188 43:-0.632975 44:-0.634874 45:-0.631215 46:-0.628522 47:-0.625323 48:-0.621507 49:-0.619129 50:-0.61975 51:-0.618827 52:-0.617052 53:-0.617976 54:-0.624202 55:-0.628641 56:-0.631242 57:-0.633221 58:-0.631151 59:-0.629689 60:-0.629885 61:-0.628626 62:-0.625322 63:-0.624785 64:-0.621812 65:-0.62013 66:-0.616937 67:-0.616029 68:-0.613758 69:-0.611143 70:-0.608553 71:-0.608768 72:-0.607831 73:-0.61208 74:-0.617338 75:-0.617496 76:-0.616279 77:-0.615015 78:-0.614085 79:-0.614323 80:-0.613964 81:-0.613523 82:-0.613241 83:-0.612955 84:-0.610405 85:-0.609735 86:-0.610945 87:-0.612304 88:-0.611761 89:-0.613434 90:-0.614356 91:-0.61245 92:-0.611506 93:-0.613519 94:-0.613942 95:-0.613584 96:-0.612801 97:-0.613549 98:-0.612706 99:-0.612324 100:-0.611118 101:-0.609825 102:-0.608807 103:-0.609172 104:-0.609124 
-0.4792516289212388 -0.6328749104276383 0.07778205752184367 0.9258388015627463 1.100890513089144 0.6371193632478575 0.8902217242380701 1.233163456486394 0.7581775845501929 1:-0.426131 2:-0.306184 3:-0.353255 4:-0.410908 5:-0.448192 6:-0.543584 7:-0.488971 8:-0.521019 9:-0.580603 10:-0.553777 11:-0.530786 12:-0.51445 13:-0.498521 14:-0.488511 15:-0.515849 16:-0.521706 17:-0.514345 18:-0.492855 19:-0.484232 20:-0.481158 21:-0.475981 22:-0.464742 23:-0.457142 24:-0.447892 25:-0.448794 26:-0.451487 27:-0.461928 28:-0.46287 29:-0.463052 30:-0.456437 31:-0.455411 32:-0.451204 33:-0.450575 34:-0.446347 35:-0.443264 36:-0.447496 37:-0.441073 38:-0.437927 39:-0.437425 40:-0.443442 41:-0.446383 42:-0.443548 43:-0.439626 44:-0.43833 45:-0.433233 46:-0.429424 47:-0.432026 48:-0.43004 49:-0.428398 50:-0.427862 51:-0.42799 52:-0.430359 53:-0.428322 54:-0.429456 55:-0.427945 56:-0.428058 57:-0.426787 58:-0.425649 59:-0.426831 60:-0.426791 61:-0.432961 62:-0.432046 63:-0.435458 64:-0.431199 65:-0.433113 66:-0.428843 67:-0.423196 68:-0.420421 69:-0.416565 70:-0.413988 71:-0.412323 72:-0.412125 73:-0.41626 74:-0.42207 75:-0.423043 76:-0.428153 77:-0.427724 78:-0.428517 79:-0.427305 80:-0.426731 81:-0.42747 82:-0.427772 83:-0.425754 84:-0.424474 85:-0.429382 86:-0.428377 87:-0.427781 88:-0.427304 89:-0.42858 90:-0.423166 91:-0.421834 92:-0.422905 93:-0.421586 94:-0.421366 95:-0.423863 96:-0.424341 97:-0.422788 98:-0.425786 99:-0.424342 100:-0.425709 101:-0.423219 102:-0.423499 103:-0.42222 104:-0.41959 
-4.495933961510778 -1.103434622952794 -0 0.6692299370108131 0.5873709732542001 0.5734075441449333 0.6500960400464588 0.7547976914619636 0.5062315293226851 1:-0.698311 2:-0.634992 3:-0.654452 4:-0.685144 5:-0.758695 6:-0.727513 7:-0.695833 8:-0.784166 9:-0.800801 10:-0.781598 11:-0.763053 12:-0.752475 13:-0.739421 14:-0.72911 15:-0.722452 16:-0.722555 17:-0.71797 18:-0.707685 19:-0.704566 20:-0.706399 21:-0.701384 22:-0.696294 23:-0.696658 24:-0.692309 25:-0.689468 26:-0.688198 27:-0.688551 28:-0.687604 29:-0.688477 30:-0.685824 31:-0.684532 32:-0.68433 33:-0.683403 34:-0.684289 35:-0.683318 36:-0.67931 37:-0.673141 38:-0.668267 39:-0.665439 40:-0.66713 41:-0.666159 42:-0.665703 43:-0.666335 44:-0.685058 45:-0.685936 46:-0.686202 47:-0.682947 48:-0.681973 49:-0.682218 50:-0.681662 51:-0.681863 52:-0.679893 53:-0.679144 54:-0.679772 55:-0.680355 56:-0.681923 57:-0.684513 58:-0.684758 59:-0.683999 60:-0.683271 61:-0.684545 62:-0.683428 63:-0.683677 64:-0.68633 65:-0.685911 66:-0.683499 67:-0.681576 68:-0.679841 69:-0.67791 70:-0.675994 71:-0.676265 72:-0.675934 73:-0.675525 74:-0.675735 75:-0.675208 76:-0.675373 77:-0.675379 78:-0.679739 79:-0.678699 80:-0.678626 81:-0.679534 82:-0.681842 83:-0.683561 84:-0.681982 85:-0.681735 86:-0.680195 87:-0.679053 88:-0.679784 89:-0.680733 90:-0.678217 91:-0.678725 92:-0.681298 93:-0.684173 94:-0.684677 95:-0.686194 96:-0.686853 97:-0.686982 98:-0.688755 99:-0.689743 100:-0.691298 101:-0.689578 102:-0.688823 103:-0.689448 104:-0.689694 
-0 -0 -4.060398168132259 0 0 0 0 0 0 1:-0.682392 2:-0.565611 3:-0.645246 4:-0.669883 5:-0.70932 6:-0.682117 7:-0.703024 8:-0.716712 9:-0.75836 10:-0.737545 11:-0.727089 12:-0.71192 13:-0.707871 14:-0.702034 15:-0.696417 16:-0.695652 17:-0.691194 18:-0.683192 19:-0.680694 20:-0.685408 21:-0.68056 22:-0.677168 23:-0.675639 24:-0.67284 25:-0.674227 26:-0.672312 27:-0.6711 28:-0.671442 29:-0.670363 30:-0.667721 31:-0.668594 32:-0.667722 33:-0.666824 34:-0.666095 35:-0.665198 36:-0.661989 37:-0.6565 38:-0.649362 39:-0.648275 40:-0.647791 41:-0.65275 42:-0.661712 43:-0.670059 44:-0.671086 45:-0.67022 46:-0.666663 47:-0.666612 48:-0.664622 49:-0.664851 50:-0.666446 51:-0.667588 52:-0.665519 53:-0.666125 54:-0.665067 55:-0.666331 56:-0.665826 57:-0.665979 58:-0.66476 59:-0.665157 60:-0.664475 61:-0.663929 62:-0.662547 63:-0.661373 64:-0.662647 65:-0.664665 66:-0.66671 67:-0.66742 68:-0.66528 69:-0.663729 70:-0.661715 71:-0.662173 72:-0.664135 73:-0.663657 74:-0.663783 75:-0.663192 76:-0.665018 77:-0.665148 78:-0.66457 79:-0.663485 80:-0.665959 81:-0.665772 82:-0.666145 83:-0.66864 84:-0.666973 85:-0.665662 86:-0.664064 87:-0.663872 88:-0.66481 89:-0.665157 90:-0.662512 91:-0.660137 92:-0.662905 93:-0.665999 94:-0.66811 95:-0.66993 96:-0.67094 97:-0.672557 98:-0.671912 99:-0.671205 100:-0.671468 101:-0.673157 102:-0.672706 103:-0.674253 104:-0.673792 
-0 -0 -8 0.668223094258936 0.5959574612519264 0.4403208898577214 0.6494989457053814 0.7574555335495735 0.5077588483803793 1:-0.649777 2:-0.586727 3:-0.623706 4:-0.668304 5:-0.705075 6:-0.70624 7:-0.675253 8:-0.725854 9:-0.748559 10:-0.763295 11:-0.746573 12:-0.728493 13:-0.716026 14:-0.713607 15:-0.706578 16:-0.703238 17:-0.697904 18:-0.687241 19:-0.684204 20:-0.686099 21:-0.680987 22:-0.680005 23:-0.67662 24:-0.672144 25:-0.66926 26:-0.669903 27:-0.669433 28:-0.668491 29:-0.66622 30:-0.666533 31:-0.665234 32:-0.663311 33:-0.662437 34:-0.660761 35:-0.659917 36:-0.658216 37:-0.651783 38:-0.64694 39:-0.644104 40:-0.64363 41:-0.645724 42:-0.645279 43:-0.661341 44:-0.660461 45:-0.658057 46:-0.654658 47:-0.655232 48:-0.652501 49:-0.651111 50:-0.650834 51:-0.650548 52:-0.650381 53:-0.653179 54:-0.655512 55:-0.657889 56:-0.657483 57:-0.657169 58:-0.656034 59:-0.655436 60:-0.660098 61:-0.662892 62:-0.660421 63:-0.659978 64:-0.658519 65:-0.660989 66:-0.659503 67:-0.656808 68:-0.657048 69:-0.655062 70:-0.653089 71:-0.652394 72:-0.651887 73:-0.651542 74:-0.650612 75:-0.650166 76:-0.651803 77:-0.651031 78:-0.651702 79:-0.651932 80:-0.657414 81:-0.65964 82:-0.660633 83:-0.65969 84:-0.657668 85:-0.656407 86:-0.656328 87:-0.657014 88:-0.656775 89:-0.659208 90:-0.66013 91:-0.65981 92:-0.66106 93:-0.662848 94:-0.663968 95:-0.664487 96:-0.665457 97:-0.668091 98:-0.670898 99:-0.672906 100:-0.673699 101:-0.671882 102:-0.672333 103:-0.6741 104:-0.674519 
-0.5428445824373191 -0.5021625812637853 -0.7029826837495194 -0.5040647415224756 0.6237023333084013 0.5035605597115435 0.8542693596047943 0.8941859074756383 0.5053884160316251 1:0.733644 2:1 3:0.868858 4:0.75762 5:0.722288 6:0.730273 7:0.74472 8:0.775957 9:0.752752 10:0.761702 11:0.765677 12:0.778951 13:0.768385 14:0.763351 15:0.764445 16:0.771112 17:0.774657 18:0.80885 19:0.805984 20:0.759872 21:0.781036 22:0.777991 23:0.774443 24:0.775354 25:0.764541 26:0.755811 27:0.757177 28:0.753418 29:0.759826 30:0.770402 31:0.771322 32:0.757148 33:0.757472 34:0.760662 35:0.758962 36:0.763545 37:0.736628 38:0.760803 39:0.763655 40:0.761253 41:0.757161 42:0.748119 43:0.758826 44:0.761718 45:0.75787 46:0.733586 47:0.73558 48:0.741919 49:0.73863 50:0.734105 51:0.728663 52:0.732976 53:0.734518 54:0.733875 55:0.736991 56:0.735217 57:0.720789 58:0.726623 59:0.729209 60:0.729076 61:0.728374 62:0.735789 63:0.734118 64:0.746031 65:0.749595 66:0.761405 67:0.771169 68:0.779461 69:0.786334 70:0.789975 71:0.788992 72:0.775821 73:0.771075 74:0.770067 75:0.763421 76:0.759399 77:0.752464 78:0.753877 79:0.755183 80:0.741726 81:0.729439 82:0.726157 83:0.730215 84:0.73937 85:0.743117 86:0.747118 87:0.750208 88:0.747717 89:0.744073 90:0.757012 91:0.762894 92:0.759786 93:0.758437 94:0.759883 95:0.759404 96:0.760911 97:0.761045 98:0.744898 99:0.742758 100:0.736103 101:0.738674 102:0.735184 103:0.737938 104:0.738392 
-0.1258695039932005 -0.1205239637953171 -0.1625052748677867 -0.1224798353559961 0.1442934588623793 0.1156775851882859 0.1067075198462041 0.205889877150714 0.1181160237706876 1:0.819064 2:0.671192 3:0.785936 4:0.784405 5:0.793471 6:0.767323 7:0.783881 8:0.811838 9:0.778005 10:0.780734 11:0.783214 12:0.798928 13:0.784927 14:0.785062 15:0.784101 16:0.793624 17:0.790618 18:0.832037 19:0.826257 20:0.787341 21:0.799199 22:0.796407 23:0.789396 24:0.802345 25:0.801325 26:0.7873 27:0.786004 28:0.786513 29:0.792288 30:0.802727 31:0.804498 32:0.802838 33:0.803898 34:0.794691 35:0.792466 36:0.812378 37:0.831775 38:0.863512 39:0.866953 40:0.865632 41:0.864817 42:0.861912 43:0.868955 44:0.834031 45:0.816719 46:0.823514 47:0.8303 48:0.842034 49:0.838795 50:0.828419 51:0.829294 52:0.817835 53:0.819991 54:0.807474 55:0.801336 56:0.800772 57:0.796829 58:0.799113 59:0.799942 60:0.797882 61:0.799491 62:0.795157 63:0.794956 64:0.805163 65:0.801664 66:0.812176 67:0.816732 68:0.82372 69:0.821495 70:0.828388 71:0.829173 72:0.817653 73:0.804703 74:0.799702 75:0.788982 76:0.782966 77:0.781823 78:0.781747 79:0.785391 80:0.784812 81:0.783417 82:0.788364 83:0.791587 84:0.79102 85:0.784882 86:0.782143 87:0.786865 88:0.772649 89:0.768585 90:0.773808 91:0.784673 92:0.786433 93:0.776658 94:0.776341 95:0.770682 96:0.768321 97:0.767605 98:0.764593 99:0.765296 100:0.766939 101:0.774653 102:0.776019 103:0.778831 104:0.777717 
-0.04513408270636272 -0.04515390199396057 -0.05910398812608376 -0.04576315641491756 0.05450599105366973 0.04151797465548478 0 0.0744925213237929 0.0427913260723487 1:0.77053 2:0.927602 3:1 4:0.853689 5:0.844405 6:0.856946 7:0.859922 8:0.885833 9:0.85498 10:0.859843 11:0.872013 12:0.881055 13:0.881069 14:0.876849 15:0.871428 16:0.875245 17:0.881854 18:0.919149 19:0.89015 20:0.878256 21:0.856162 22:0.835046 23:0.842997 24:0.834323 25:0.820695 26:0.817961 27:0.819844 28:0.821531 29:0.814318 30:0.82237 31:0.815474 32:0.808247 33:0.784468 34:0.767079 35:0.751161 36:0.757078 37:0.782144 38:0.806782 39:0.809345 40:0.80749 41:0.787304 42:0.776796 43:0.781639 44:0.77905 45:0.790302 46:0.796166 47:0.803221 48:0.808127 49:0.811373 50:0.808426 51:0.807328 52:0.811704 53:0.806934 54:0.808889 55:0.808181 56:0.810531 57:0.80987 58:0.816306 59:0.817469 60:0.81665 61:0.815883 62:0.822763 63:0.827279 64:0.840218 65:0.845053 66:0.856321 67:0.869494 68:0.872895 69:0.866354 70:0.865398 71:0.861088 72:0.850126 73:0.849995 74:0.8497 75:0.840697 76:0.839842 77:0.837352 78:0.837155 79:0.837843 80:0.835483 81:0.835966 82:0.832665 83:0.833562 84:0.831266 85:0.828018 86:0.831374 87:0.831151 88:0.828062 89:0.831317 90:0.827592 91:0.837788 92:0.840021 93:0.834681 94:0.833685 95:0.830536 96:0.824965 97:0.827021 98:0.827458 99:0.825203 100:0.82243 101:0.828937 102:0.827198 103:0.826594 104:0.83006 
-0.04462824558934772 -0.01927033557769246 -0.04843609584963374 -0.01128121720876174 0.02822580797663551 0.03705494851562308 0.06227791183552284 0.06570847130031236 0.03456012226544318 1:0.948748 2:0.806938 3:0.866407 4:0.885453 5:0.864355 6:0.875288 7:0.87262 8:0.879924 9:0.871052 10:0.878097 11:0.894215 12:0.89803 13:0.893893 14:0.893826 15:0.886055 16:0.890023 17:0.894714 18:0.933753 19:0.89198 20:0.854671 21:0.869972 22:0.886895 23:0.881088 24:0.883808 25:0.881292 26:0.88704 27:0.890773 28:0.884855 29:0.89355 30:0.90244 31:0.881733 32:0.88711 33:0.881619 34:0.888975 35:0.886856 36:0.910544 37:0.941772 38:0.961043 39:0.963588 40:0.962643 41:0.95643 42:0.937101 43:0.946238 44:0.931497 45:0.923036 46:0.915768 47:0.920739 48:0.917443 49:0.920205 50:0.908681 51:0.902287 52:0.911246 53:0.910013 54:0.906027 55:0.905106 56:0.901529 57:0.893962 58:0.896424 59:0.891633 60:0.891814 61:0.893185 62:0.899438 63:0.899529 64:0.911628 65:0.91495 66:0.92264 67:0.930672 68:0.934076 69:0.933474 70:0.929977 71:0.918997 72:0.916764 73:0.906022 74:0.900311 75:0.890459 76:0.889009 77:0.889302 78:0.889816 79:0.89502 80:0.893221 81:0.891425 82:0.892317 83:0.88897 84:0.885732 85:0.88851 86:0.893638 87:0.873593 88:0.871645 89:0.870421 90:0.878152 91:0.884791 92:0.881968 93:0.880832 94:0.876897 95:0.870447 96:0.866918 97:0.86899 98:0.868546 99:0.864919 100:0.861837 101:0.869902 102:0.872838 103:0.877504 104:0.880757 
-0.04671626406666961 -0.06384368738331539 -0.07103984668659732 -0.07151424761948336 0.07773727867952554 0.04798781719008825 0.09723230657196974 0.08574259369133617 0.05078054276028664 1:0.935546 2:0.803922 3:0.907176 4:0.913091 5:0.899839 6:0.893514 7:0.925491 8:0.909879 9:0.909767 10:0.912503 11:0.926855 12:0.929414 13:0.911979 14:0.9169 15:0.914083 16:0.9176 17:0.919734 18:0.961769 19:0.922067 20:0.889249 21:0.904011 22:0.9024 23:0.885016 24:0.894581 25:0.884137 26:0.876077 27:0.88734 28:0.88531 29:0.892223 30:0.901692 31:0.902997 32:0.908566 33:0.908711 34:0.911735 35:0.909929 36:0.925093 37:0.949477 38:0.978033 39:0.985726 40:0.985431 41:0.989683 42:0.988867 43:0.997716 44:0.993149 45:0.999259 46:0.925672 47:0.911703 48:0.921583 49:0.927162 50:0.927448 51:0.924432 52:0.932051 53:0.913539 54:0.915396 55:0.912271 56:0.899975 57:0.895736 58:0.900273 59:0.903351 60:0.90576 61:0.905187 62:0.916701 63:0.917089 64:0.921625 65:0.919016 66:0.930335 67:0.93838 68:0.947846 69:0.955449 70:0.954364 71:0.939995 72:0.922308 73:0.913011 74:0.906114 75:0.906839 76:0.906779 77:0.908092 78:0.910549 79:0.913686 80:0.913373 81:0.904709 82:0.894663 83:0.889985 84:0.893896 85:0.896316 86:0.890607 87:0.88571 88:0.882614 89:0.881876 90:0.893457 91:0.905862 92:0.891618 93:0.89477 94:0.89473 95:0.889367 96:0.889233 97:0.892055 98:0.884216 99:0.885364 100:0.8875 101:0.89364 102:0.8986 103:0.903785 104:0.90678 
-0.626332261966273 -0.5793155905038037 -0.8082046666581862 -0.5823498331481147 0.7150686295275345 0.5784580541237336 0.8068709603798657 1.027847276388597 0.5824824386561881 1:1 2:0.897436 3:0.93648 4:1 5:1 6:1 7:1 8:1 9:1 10:1 11:1 12:1 13:1 14:1 15:1 16:1 17:1 18:1 19:1 20:1 21:1 22:1 23:1 24:1 25:1 26:1 27:1 28:1 29:1 30:1 31:1 32:1 33:1 34:1 35:1 36:1 37:1 38:1 39:1 40:1 41:1 42:1 43:1 44:1 45:1 46:1 47:1 48:1 49:1 50:1 51:1 52:1 53:1 54:1 55:1 56:1 57:1 58:1 59:1 60:1 61:1 62:1 63:1 64:1 65:1 66:1 67:1 68:1 69:1 70:1 71:1 72:1 73:1 74:1 75:1 76:1 77:1 78:1 79:1 80:1 81:1 82:1 83:1 84:1 85:1 86:1 87:1 88:1 89:1 90:1 91:1 92:1 93:1 94:1 95:1 96:1 97:1 98:1 99:1 100:1 101:1 102:1 103:1 104:1 
-0.6288047277021346 -0.5886855881462105 -1.157117950829463 -0.5910261555153634 -0.8214806493979384 0.5857347039809226 0.7928116683144864 4.591220533836514 0 1:-0.256455 2:-0.276018 3:-0.258957 4:-0.271611 5:-0.252545 6:-0.276554 7:-0.249556 8:-0.275199 9:-0.339521 10:-0.32039 11:-0.314332 12:-0.420817 13:-0.39622 14:-0.384122 15:-0.395407 16:-0.378715 17:-0.388714 18:-0.365961 19:-0.408939 20:-0.408724 21:-0.397189 22:-0.38586 23:-0.378149 24:-0.372483 25:-0.362289 26:-0.361465 27:-0.355974 28:-0.350601 29:-0.352238 30:-0.343718 31:-0.341379 32:-0.337564 33:-0.33314 34:-0.327313 35:-0.333189 36:-0.324895 37:-0.312924 38:-0.297981 39:-0.291776 40:-0.293286 41:-0.289479 42:-0.288944 43:-0.282228 44:-0.280304 45:-0.276639 46:-0.272076 47:-0.268824 48:-0.263297 49:-0.261674 50:-0.260601 51:-0.262943 52:-0.26021 53:-0.258587 54:-0.258042 55:-0.257082 56:-0.2579 57:-0.25868 58:-0.25615 59:-0.256236 60:-0.254901 61:-0.256655 62:-0.253672 63:-0.251185 64:-0.246555 65:-0.245776 66:-0.240621 67:-0.236665 68:-0.232559 69:-0.231228 70:-0.233468 71:-0.237712 72:-0.24173 73:-0.246474 74:-0.244518 75:-0.247416 76:-0.252276 77:-0.255556 78:-0.257765 79:-0.258042 80:-0.259009 81:-0.258713 82:-0.261494 83:-0.262987 84:-0.262309 85:-0.261522 86:-0.260057 87:-0.262878 88:-0.266013 89:-0.268613 90:-0.261997 91:-0.257717 92:-0.259736 93:-0.259934 94:-0.259669 95:-0.264259 96:-0.269972 97:-0.270709 98:-0.277434 99:-0.279318 100:-0.277547 101:-0.274337 102:-0.275112 103:-0.276367 104:-0.27563 
-0 -0 -0 -0 -0 0 0 1.639751757669353 6.822521550454862 1:-0.256843 2:-0.333333 3:-0.293285 4:-0.232022 5:-0.273387 6:-0.267691 7:-0.256792 8:-0.266901 9:-0.303254 10:-0.321111 11:-0.299048 12:-0.372754 13:-0.352094 14:-0.346251 15:-0.35779 16:-0.347412 17:-0.339398 18:-0.313859 19:-0.312051 20:-0.308507 21:-0.298957 22:-0.318924 23:-0.333389 24:-0.335925 25:-0.332985 26:-0.32487 27:-0.319722 28:-0.317634 29:-0.309755 30:-0.301338 31:-0.296444 32:-0.290129 33:-0.288463 34:-0.293049 35:-0.288991 36:-0.27822 37:-0.263552 38:-0.257812 39:-0.251642 40:-0.248868 41:-0.247604 42:-0.24515 43:-0.238387 44:-0.234584 45:-0.23052 46:-0.235101 47:-0.229114 48:-0.22351 49:-0.220092 50:-0.220484 51:-0.219533 52:-0.21512 53:-0.221437 54:-0.220876 55:-0.219958 56:-0.220648 57:-0.220856 58:-0.218296 59:-0.216958 60:-0.218286 61:-0.217263 62:-0.214635 63:-0.213402 64:-0.207213 65:-0.205111 66:-0.202197 67:-0.196895 68:-0.192484 69:-0.188336 70:-0.187111 71:-0.185926 72:-0.185168 73:-0.189521 74:-0.189794 75:-0.197921 76:-0.198523 77:-0.199201 78:-0.206472 79:-0.208642 80:-0.214565 81:-0.217255 82:-0.219316 83:-0.219339 84:-0.215842 85:-0.214426 86:-0.211944 87:-0.209923 88:-0.21051 89:-0.210313 90:-0.211066 91:-0.208922 92:-0.209003 93:-0.208368 94:-0.209993 95:-0.21504 96:-0.214975 97:-0.214249 98:-0.216214 99:-0.220108 100:-0.219427 101:-0.22033 102:-0.2215 103:-0.225066 104:-0.227673 
-0 -0 -0 -0 -0 0 0 0.821739982377697 0 1:-0.159775 2:-0.182504 3:-0.186013 4:-0.160229 5:-0.116748 6:-0.15324 7:-0.175799 8:-0.246567 9:-0.214137 10:-0.204005 11:-0.323705 12:-0.289058 13:-0.274997 14:-0.273691 15:-0.264224 16:-0.248512 17:-0.241812 18:-0.232767 19:-0.229345 20:-0.221244 21:-0.212736 22:-0.199325 23:-0.258096 24:-0.255558 25:-0.252773 26:-0.248018 27:-0.242031 28:-0.239899 29:-0.234693 30:-0.225697 31:-0.221883 32:-0.217849 33:-0.213557 34:-0.207547 35:-0.211035 36:-0.206627 37:-0.192912 38:-0.176305 39:-0.172159 40:-0.169283 41:-0.16725 42:-0.168889 43:-0.163374 44:-0.159194 45:-0.156958 46:-0.149969 47:-0.146872 48:-0.140907 49:-0.140858 50:-0.140963 51:-0.13998 52:-0.136854 53:-0.136933 54:-0.136284 55:-0.135443 56:-0.13621 57:-0.137984 58:-0.135281 59:-0.135375 60:-0.138316 61:-0.14031 62:-0.134392 63:-0.133039 64:-0.126272 65:-0.12563 66:-0.119815 67:-0.115784 68:-0.119999 69:-0.116613 70:-0.118731 71:-0.12498 72:-0.129474 73:-0.133399 74:-0.132591 75:-0.133814 76:-0.135929 77:-0.136832 78:-0.136772 79:-0.1364 80:-0.143811 81:-0.147915 82:-0.149759 83:-0.147455 84:-0.147783 85:-0.145633 86:-0.142724 87:-0.143707 88:-0.150916 89:-0.152078 90:-0.147008 91:-0.14627 92:-0.149252 93:-0.154806 94:-0.158117 95:-0.158672 96:-0.160329 97:-0.160508 98:-0.166392 99:-0.167477 100:-0.165881 101:-0.163171 102:-0.164465 103:-0.163754 104:-0.160236 
-0.6187515308036183 -0.5886855826812172 -0.666920131937447 -0.5802145394449948 -0.804582162185051 0.5747379407469068 0.7799145717408162 0 0.5125840409097209 1:-0.142302 2:-0.176471 3:-0.188022 4:-0.146387 5:-0.104912 6:-0.140819 7:-0.141707 8:-0.231688 9:-0.223061 10:-0.201296 11:-0.317878 12:-0.28225 13:-0.267476 14:-0.255679 15:-0.252013 16:-0.242372 17:-0.229392 18:-0.213561 19:-0.210565 20:-0.207531 21:-0.211959 22:-0.251462 23:-0.258964 24:-0.245371 25:-0.24444 26:-0.23595 27:-0.233207 28:-0.227699 29:-0.222435 30:-0.216298 31:-0.211061 32:-0.20967 33:-0.213216 34:-0.206752 35:-0.204871 36:-0.195334 37:-0.182185 38:-0.165336 39:-0.161035 40:-0.158152 41:-0.156367 42:-0.153765 43:-0.146327 44:-0.148165 45:-0.141917 46:-0.136801 47:-0.132329 48:-0.128152 49:-0.124474 50:-0.128835 51:-0.127825 52:-0.124869 53:-0.123271 54:-0.121036 55:-0.121806 56:-0.12258 57:-0.125019 58:-0.12228 59:-0.120909 60:-0.122653 61:-0.123019 62:-0.117073 63:-0.115754 64:-0.111618 65:-0.110014 66:-0.105449 67:-0.104854 68:-0.0999352 69:-0.105394 70:-0.10344 71:-0.112061 72:-0.117647 73:-0.122979 74:-0.121878 75:-0.120923 76:-0.125201 77:-0.124291 78:-0.12421 79:-0.124958 80:-0.130096 81:-0.131701 82:-0.12943 83:-0.135884 84:-0.135002 85:-0.138908 86:-0.135807 87:-0.132847 88:-0.136133 89:-0.13728 90:-0.132594 91:-0.131881 92:-0.134626 93:-0.139501 94:-0.142801 95:-0.144468 96:-0.143505 97:-0.144926 98:-0.150967 99:-0.152585 100:-0.150672 101:-0.148133 102:-0.149535 103:-0.148277 104:-0.14462 
-0.009105782232095374 -0.0005320103249054838 -0 -0.01208773954576831 -0.01747068782515643 0.01221062491423276 0.0133717606316951 7.349059997595974 0 1:-0.152786 2:-0.113122 3:-0.15233 4:-0.146147 5:-0.100524 6:-0.164811 7:-0.140388 8:-0.221072 9:-0.197053 10:-0.208487 11:-0.292396 12:-0.285304 13:-0.279389 14:-0.278722 15:-0.26721 16:-0.264786 17:-0.255491 18:-0.243397 19:-0.263218 20:-0.25895 21:-0.256552 22:-0.248198 23:-0.240458 24:-0.236006 25:-0.232794 26:-0.228012 27:-0.222089 28:-0.216912 29:-0.214973 30:-0.208948 31:-0.208892 32:-0.204689 33:-0.203836 34:-0.197541 35:-0.195171 36:-0.185729 37:-0.170689 38:-0.158288 39:-0.152716 40:-0.152097 41:-0.150364 42:-0.147819 43:-0.1452 44:-0.142983 45:-0.140636 46:-0.133542 47:-0.129068 48:-0.124715 49:-0.122805 50:-0.123405 51:-0.123711 52:-0.120701 53:-0.119107 54:-0.11968 55:-0.120396 56:-0.119582 57:-0.121033 58:-0.119767 59:-0.119817 60:-0.119871 61:-0.120215 62:-0.115612 63:-0.114244 64:-0.108299 65:-0.11512 66:-0.1094 67:-0.111276 68:-0.109851 69:-0.117249 70:-0.113557 71:-0.113912 72:-0.117416 73:-0.121901 74:-0.124993 75:-0.125852 76:-0.12862 77:-0.128137 78:-0.127668 79:-0.129789 80:-0.130105 81:-0.137917 82:-0.142015 83:-0.144892 84:-0.145263 85:-0.143369 86:-0.142475 87:-0.142356 88:-0.14199 89:-0.140912 90:-0.139536 91:-0.140037 92:-0.141477 93:-0.142509 94:-0.143734 95:-0.15033 96:-0.152784 97:-0.15183 98:-0.150958 99:-0.151026 100:-0.154389 101:-0.152434 102:-0.151778 103:-0.148764 104:-0.148465 
-0 -0 -0 -0 -0.2216054485996949 -0 0 0 0.1560852263963317 1:-0.99767 2:-0.996983 3:-0.998571 4:-1 5:-0.961123 6:-0.985611 7:-0.981455 8:-0.985918 9:-0.988684 10:-0.990619 11:-0.999118 12:-0.99867 13:-0.997035 14:-0.994571 15:-0.994947 16:-0.995363 17:-0.995722 18:-0.99595 19:-0.996233 20:-0.996477 21:-0.996667 22:-0.996832 23:-0.996995 24:-0.99713 25:-0.997263 26:-0.997391 27:-0.997502 28:-0.998253 29:-0.998857 30:-0.998899 31:-0.998686 32:-0.998724 33:-0.998797 34:-0.998862 35:-0.998925 36:-0.998975 37:-0.999738 38:-0.999393 39:-0.998745 40:-0.998747 41:-0.998788 42:-0.998828 43:-0.99886 44:-0.998894 45:-0.999778 46:-0.999918 47:-0.999916 48:-1 49:-1 50:-1 51:-1 52:-1 53:-1 54:-1 55:-1 56:-1 57:-1 58:-1 59:-1 60:-1 61:-1 62:-1 63:-1 64:-1 65:-1 66:-1 67:-1 68:-1 69:-1 70:-1 71:-1 72:-1 73:-1 74:-0.999901 75:-0.99973 76:-0.999736 77:-0.999774 78:-1 79:-1 80:-1 81:-1 82:-1 83:-1 84:-1 85:-1 86:-1 87:-1 88:-1 89:-1 90:-1 91:-1 92:-1 93:-1 94:-1 95:-1 96:-1 97:-1 98:-1 99:-1 100:-1 101:-1 102:-1 103:-1 104:-1 
-0 -0 -0 -0 -0.2766371518373489 -0 0.444885291159153 0.5003499181529948 0.215935728428917 1:-0.99767 2:-1 3:-0.999928 4:-0.999852 5:-0.953996 6:-1 7:-0.993836 8:-1 9:-1 10:-1 11:-1 12:-0.99672 13:-0.998049 14:-0.997633 15:-1 16:-1 17:-1 18:-1 19:-1 20:-1 21:-1 22:-1 23:-1 24:-1 25:-1 26:-1 27:-1 28:-1 29:-1 30:-1 31:-0.999744 32:-0.999745 33:-0.999781 34:-0.999814 35:-0.999845 36:-0.999873 37:-0.99918 38:-0.998213 39:-0.99795 40:-0.998739 41:-0.99878 42:-0.99882 43:-0.998852 44:-0.998887 45:-0.998978 46:-0.999135 47:-0.99915 48:-0.999729 49:-0.999992 50:-0.999992 51:-0.999992 52:-0.999992 53:-0.999992 54:-0.999992 55:-0.999992 56:-0.999992 57:-0.999992 58:-0.999992 59:-0.999992 60:-0.999992 61:-0.999992 62:-0.999992 63:-0.999992 64:-0.999992 65:-0.999992 66:-0.999992 67:-0.999992 68:-0.999992 69:-0.999992 70:-0.999992 71:-0.999992 72:-0.999992 73:-0.999992 74:-0.999893 75:-0.999722 76:-0.999824 77:-1 78:-0.999992 79:-0.999992 80:-0.999992 81:-0.999992 82:-0.999992 83:-0.999992 84:-0.999992 85:-0.999992 86:-0.999992 87:-0.999992 88:-0.999992 89:-0.999992 90:-0.999992 91:-0.999992 92:-0.999992 93:-0.999992 94:-0.999992 95:-0.999992 96:-0.999992 97:-0.999992 98:-0.999992 99:-0.999725 100:-0.999347 101:-0.999352 102:-0.999358 103:-0.999435 104:-0.999679 
-0 -0 -0.2758594873857698 -0.01044552999044965 -0.5041025591722597 -0.1822100888132473 0 0 0.3796913670047792 1:-1 2:-0.993967 3:-0.999855 4:-0.999616 5:-0.985585 6:-0.999751 7:-1 8:-0.999756 9:-0.999755 10:-0.999755 11:-0.999756 12:-0.996475 13:-0.995511 14:-0.995385 15:-0.997228 16:-0.997436 17:-0.997616 18:-0.997725 19:-0.997867 20:-0.99799 21:-0.998084 22:-0.998164 23:-0.998246 24:-0.998312 25:-0.998378 26:-0.998442 27:-0.998497 28:-0.998554 29:-0.998601 30:-0.998641 31:-0.998429 32:-0.998467 33:-0.99854 34:-0.998605 35:-0.998669 36:-0.998716 37:-0.998315 38:-0.998343 39:-0.99839 40:-0.999218 41:-0.99924 42:-0.999261 43:-0.999277 44:-0.999294 45:-0.999309 46:-0.998186 47:-0.996975 48:-0.996377 49:-0.996448 50:-0.996528 51:-0.996603 52:-0.99666 53:-0.996726 54:-0.996787 55:-0.996851 56:-0.996912 57:-0.996971 58:-0.997021 59:-0.997073 60:-0.997123 61:-0.997172 62:-0.997204 63:-0.997244 64:-0.997271 65:-0.99731 66:-0.997337 67:-0.997359 68:-0.997388 69:-0.997641 70:-0.998351 71:-0.998372 72:-0.998394 73:-0.998415 74:-0.998335 75:-0.998232 76:-0.999018 77:-0.998919 78:-0.998923 79:-0.998933 80:-0.998946 81:-0.998958 82:-0.998967 83:-0.998976 84:-0.998982 85:-0.99899 86:-0.998996 87:-0.999004 88:-0.999014 89:-0.999021 90:-0.999023 91:-0.999026 92:-0.999035 93:-0.999042 94:-0.999051 95:-0.99906 96:-0.999068 97:-0.999075 98:-0.999082 99:-0.999403 100:-0.999096 101:-0.9991 102:-0.999105 103:-0.999176 104:-0.999425 
-1.263317665170013 -3.280782349425642 -1.00000010406119 -1.003282904012205 -0.2902718708011646 -0.9370477795386902 0 0.473004304989218 0.2523616032876427 1:-0.998447 2:-1 3:-1 4:-0.999362 5:-0.960578 6:-0.98511 7:-0.980964 8:-0.985428 9:-0.988192 10:-0.990095 11:-0.991553 12:-0.992712 13:-0.995416 14:-0.996725 15:-0.996857 16:-0.997076 17:-0.997265 18:-0.997376 19:-0.997527 20:-0.997657 21:-0.997754 22:-0.997837 23:-0.997923 24:-0.997991 25:-0.998061 26:-0.998129 27:-0.998186 28:-0.998247 29:-0.998296 30:-0.998338 31:-0.998128 32:-0.998168 33:-0.998244 34:-0.99831 35:-0.998376 36:-0.998422 37:-0.998326 38:-0.998362 39:-0.998415 40:-0.999704 41:-0.999705 42:-0.999707 43:-0.999707 44:-0.999707 45:-0.999708 46:-0.99857 47:-0.997345 48:-0.996734 49:-0.996792 50:-0.996857 51:-0.996919 52:-0.996965 53:-0.99702 54:-0.99707 55:-0.997123 56:-0.997173 57:-0.997222 58:-0.997262 59:-0.997305 60:-0.997346 61:-0.997387 62:-0.997411 63:-0.997444 64:-0.997464 65:-0.997496 66:-0.997517 67:-0.997533 68:-0.997555 69:-0.997577 70:-0.997865 71:-0.998522 72:-0.998537 73:-0.998552 74:-0.998466 75:-0.99831 76:-0.998625 77:-0.998848 78:-0.999033 79:-0.999038 80:-0.999046 81:-0.999053 82:-0.999058 83:-0.999063 84:-0.999064 85:-0.999068 86:-0.999071 87:-0.999153 88:-0.999812 89:-0.999807 90:-0.999802 91:-0.999797 92:-0.999793 93:-0.99979 94:-0.999786 95:-0.999783 96:-0.99978 97:-0.999776 98:-0.999773 99:-0.999503 100:-0.999122 101:-0.999123 102:-0.999125 103:-0.999127 104:-0.999127 
-0 -0 -0 -0 -0 -0.05342540129012463 0 0 0 1:-1 2:-0.996983 3:-0.998643 4:-0.999229 5:-0.986155 6:-0.999226 7:-0.994593 8:-0.999243 9:-0.999239 10:-0.999241 11:-0.999242 12:-0.995962 13:-0.995689 14:-0.996603 15:-0.999252 16:-0.999251 17:-0.999251 18:-0.999237 19:-0.999239 20:-0.999241 21:-0.999237 22:-0.999232 23:-0.999231 24:-0.999227 25:-0.999226 26:-0.999227 27:-0.999226 28:-0.999228 29:-0.999227 30:-0.999225 31:-0.998971 32:-1 33:-1 34:-1 35:-1 36:-1 37:-0.999281 38:-0.99771 39:-0.996913 40:-0.997896 41:-0.997938 42:-0.997981 43:-0.998011 44:-0.998045 45:-0.998073 46:-0.996969 47:-0.997048 48:-0.997688 49:-0.998944 50:-0.999768 51:-0.999756 52:-0.999743 53:-0.999732 54:-0.999721 55:-0.999711 56:-0.999702 57:-0.999692 58:-0.999683 59:-0.999674 60:-0.999666 61:-0.999658 62:-0.999648 63:-0.99964 64:-0.999631 65:-0.999623 66:-0.999614 67:-0.999605 68:-0.999597 69:-0.999589 70:-0.999581 71:-0.999575 72:-0.99957 73:-0.999564 74:-0.99946 75:-0.999715 76:-0.99971 77:-0.999155 78:-0.999148 79:-0.999148 80:-0.99915 81:-0.999152 82:-0.999152 83:-0.999152 84:-0.999149 85:-0.999148 86:-0.999146 87:-0.999145 88:-0.999147 89:-0.999146 90:-0.999141 91:-0.999137 92:-0.999138 93:-0.999138 94:-0.999139 95:-0.99914 96:-0.999141 97:-0.999142 98:-0.999142 99:-0.998876 100:-0.998498 101:-0.998501 102:-0.998506 103:-0.998879 104:-0.999135 
-0 -0 -0 -0 -0.03163990897429125 -0 0.841661685633077 0.5210985764152938 0.002401080725536242 1:-0.996117 2:-1 3:-0.998499 4:-0.998498 5:-0.986986 6:-0.998462 7:-0.98934 8:-0.991451 9:-0.998488 10:-0.998491 11:-0.998495 12:-0.998739 13:-0.999545 14:-0.998651 15:-0.998514 16:-0.998512 17:-0.998512 18:-0.998483 19:-0.998488 20:-0.998492 21:-0.998484 22:-0.998474 23:-0.998472 24:-0.998463 25:-0.998461 26:-0.998463 27:-0.998461 28:-0.998466 29:-0.999281 30:-0.999569 31:-0.999273 32:-0.999236 33:-0.999237 34:-0.999236 35:-0.999237 36:-0.999231 37:-0.998501 38:-0.997049 39:-0.997148 40:-0.997152 41:-0.997193 42:-0.997236 43:-0.997261 44:-0.997294 45:-0.998542 46:-0.998747 47:-0.998807 48:-0.998382 49:-0.99838 50:-0.998384 51:-0.998387 52:-0.998383 53:-0.998385 54:-0.998386 55:-0.998389 56:-0.998392 57:-0.998395 58:-0.998394 59:-0.998395 60:-0.998397 61:-0.998399 62:-0.998392 63:-0.99839 64:-0.998381 65:-0.998381 66:-0.998374 67:-0.998364 68:-0.998358 69:-0.998353 70:-0.998814 71:-0.998808 72:-0.998802 73:-0.998798 74:-0.998692 75:-0.998516 76:-0.998517 77:-0.997969 78:-0.997968 79:-0.997972 80:-0.997982 81:-0.997991 82:-0.997994 83:-0.997998 84:-0.997995 85:-0.997997 86:-0.997997 87:-0.997998 88:-0.998006 89:-0.998008 90:-0.997998 91:-0.997993 92:-0.997998 93:-0.998001 94:-0.998006 95:-0.998014 96:-0.998019 97:-0.998405 98:-0.9988 99:-0.998741 100:-0.998356 101:-0.998351 102:-0.998392 103:-0.998661 104:-0.998339 
-0.6799918006030037 -0.6331857855618228 -0.8718170194615549 -0.636690710286837 -0.9312020151927729 -0.7760938157369073 -0.6304633860681809 1.611938139156372 0.6340726206092414 1:0.420695 2:0.291101 3:0.32924 4:0.396718 5:-0.0780274 6:0.0368828 7:0.162179 8:0.227469 9:0.278382 10:0.211512 11:0.230159 12:0.209224 13:0.213551 14:0.218922 15:0.224469 16:0.244149 17:0.247911 18:0.285894 19:0.28904 20:0.297183 21:0.305131 22:0.319039 23:0.325796 24:0.340424 25:0.34662 26:0.351901 27:0.35634 28:0.359602 29:0.363379 30:0.374999 31:0.374997 32:0.372355 33:0.366413 34:0.365752 35:0.368156 36:0.381667 37:0.405525 38:0.414804 39:0.417436 40:0.412403 41:0.404973 42:0.396844 43:0.404983 44:0.408041 45:0.400256 46:0.347863 47:0.340327 48:0.342194 49:0.346446 50:0.344754 51:0.345594 52:0.35043 53:0.348755 54:0.35071 55:0.34925 56:0.349463 57:0.350688 58:0.345722 59:0.343773 60:0.344883 61:0.329669 62:0.328409 63:0.332376 64:0.339044 65:0.341956 66:0.349109 67:0.360896 68:0.36895 69:0.375286 70:0.38285 71:0.380323 72:0.382143 73:0.380056 74:0.383707 75:0.383683 76:0.382905 77:0.382829 78:0.38293 79:0.385414 80:0.384983 81:0.382787 82:0.384516 83:0.385993 84:0.392532 85:0.396005 86:0.400946 87:0.401981 88:0.392352 89:0.393201 90:0.401591 91:0.402852 92:0.402658 93:0.399327 94:0.397166 95:0.390719 96:0.388739 97:0.387476 98:0.385635 99:0.387663 100:0.384622 101:0.39073 102:0.394387 103:0.394238 104:0.399431 
-0.0515199850413253 -0.048005459310971 -0.06550744674940409 -0.04850965228363755 -0 -0.0597455809594058 -0.04725407350221711 0 0.04977939969898736 1:0.533683 2:0.472097 3:0.443531 4:0.538868 5:-0.0665571 6:0.0813929 7:0.206294 8:0.299111 9:0.368847 10:0.269108 11:0.305489 12:0.342289 13:0.358857 14:0.362016 15:0.366531 16:0.381 17:0.373536 18:0.415621 19:0.409982 20:0.420808 21:0.440193 22:0.436845 23:0.449344 24:0.459307 25:0.463052 26:0.470083 27:0.476447 28:0.478881 29:0.487387 30:0.494098 31:0.49725 32:0.501477 33:0.496194 34:0.502721 35:0.500674 36:0.518222 37:0.536776 38:0.562443 39:0.569002 40:0.565001 41:0.565025 42:0.565317 43:0.575793 44:0.570651 45:0.575199 46:0.576417 47:0.571067 48:0.577307 49:0.580854 50:0.568897 51:0.550257 52:0.548422 53:0.547624 54:0.550675 55:0.519577 56:0.494166 57:0.487229 58:0.492271 59:0.493524 60:0.493675 61:0.495746 62:0.505203 63:0.508589 64:0.509473 65:0.51011 66:0.513634 67:0.522975 68:0.52689 69:0.532601 70:0.539778 71:0.541127 72:0.538604 73:0.539741 74:0.541617 75:0.534628 76:0.53349 77:0.519532 78:0.510146 79:0.511984 80:0.509746 81:0.506304 82:0.491237 83:0.483928 84:0.49233 85:0.49464 86:0.499439 87:0.499985 88:0.498518 89:0.498248 90:0.510618 91:0.518265 92:0.517421 93:0.519957 94:0.521785 95:0.520619 96:0.519612 97:0.520203 98:0.522372 99:0.52475 100:0.526612 101:0.533642 102:0.534995 103:0.536576 104:0.544259 
-0.6565282776509421 -0.6116472962757946 -0.8426893471654616 -0.6143946231813656 -0.9961560430455838 -0.7502586039906846 -0.608829517221832 1.089900101929673 0.6123219781239545 1:0.6424 2:0.3273 3:0.407846 4:0.593811 5:0.213159 6:0.21745 7:0.366431 8:0.42766 9:0.469265 10:0.406826 11:0.419846 12:0.397991 13:0.399154 14:0.398538 15:0.403543 16:0.425426 17:0.426181 18:0.470407 19:0.464382 20:0.469348 21:0.489929 22:0.502696 23:0.4994 24:0.50207 25:0.504723 26:0.508712 27:0.518997 28:0.520969 29:0.526868 30:0.537822 31:0.532685 32:0.540971 33:0.543959 34:0.550047 35:0.553052 36:0.568683 37:0.594573 38:0.620853 39:0.627371 40:0.628534 41:0.631874 42:0.631514 43:0.624858 44:0.62148 45:0.626366 46:0.633696 47:0.635217 48:0.640754 49:0.624204 50:0.590452 51:0.562164 52:0.560135 53:0.562832 54:0.563462 55:0.564685 56:0.564961 57:0.564508 58:0.567691 59:0.56577 60:0.560923 61:0.555989 62:0.555756 63:0.551813 64:0.559245 65:0.559466 66:0.566215 67:0.577771 68:0.582819 69:0.5887 70:0.596428 71:0.597739 72:0.598744 73:0.598108 74:0.600308 75:0.600026 76:0.592152 77:0.590135 78:0.588522 79:0.592089 80:0.584534 81:0.584365 82:0.586063 83:0.58852 84:0.597074 85:0.600135 86:0.601367 87:0.60058 88:0.596638 89:0.598544 90:0.608089 91:0.610994 92:0.608973 93:0.611234 94:0.606475 95:0.601575 96:0.601431 97:0.597423 98:0.592866 99:0.594742 100:0.595894 101:0.601182 102:0.599733 103:0.602952 104:0.609439 
-0.442550831811124 -0.4069221643605703 -0.8080314724634201 -0.4103296183215625 -0.6373813419215337 -8 -0.4041147020690838 -0.5928241936258668 5.713334887321359 1:-0.240148 2:-0.315234 3:-0.2867 4:-0.22955 5:-0.265162 6:-0.298823 7:-0.275057 8:-0.341232 9:-0.377831 10:-0.340989 11:-0.326334 12:-0.329553 13:-0.317552 14:-0.30235 15:-0.297414 16:-0.291747 17:-0.293502 18:-0.30264 19:-0.29466 20:-0.301458 21:-0.292252 22:-0.27943 23:-0.275296 24:-0.264557 25:-0.264771 26:-0.262018 27:-0.258991 28:-0.259827 29:-0.257134 30:-0.250478 31:-0.250289 32:-0.248208 33:-0.245631 34:-0.24386 35:-0.243818 36:-0.238171 37:-0.227385 38:-0.232611 39:-0.229603 40:-0.231786 41:-0.236079 42:-0.248235 43:-0.241321 44:-0.239352 45:-0.235539 46:-0.232745 47:-0.231243 48:-0.227238 49:-0.227241 50:-0.227826 51:-0.226631 52:-0.228712 53:-0.234029 54:-0.236784 55:-0.237792 56:-0.238043 57:-0.236945 58:-0.238468 59:-0.238134 60:-0.242953 61:-0.246127 62:-0.243069 63:-0.242113 64:-0.239118 65:-0.242391 66:-0.236594 67:-0.234769 68:-0.233932 69:-0.234876 70:-0.233863 71:-0.234354 72:-0.240729 73:-0.239888 74:-0.239291 75:-0.23795 76:-0.247038 77:-0.249395 78:-0.248887 79:-0.246124 80:-0.246714 81:-0.247105 82:-0.246031 83:-0.244676 84:-0.240912 85:-0.239831 86:-0.238601 87:-0.238432 88:-0.245301 89:-0.246094 90:-0.239993 91:-0.235364 92:-0.234739 93:-0.234051 94:-0.232689 95:-0.23234 96:-0.231139 97:-0.231218 98:-0.231973 99:-0.231692 100:-0.231279 101:-0.230382 102:-0.229336 103:-0.229052 104:-0.225684 
-0.1363392167211347 -0.1253754947273241 -0.2237824423271305 -0.1222024906374309 -0.2021402355587025 -0.1688816780205541 -0.1242789051771721 -0.1537902856558199 0 1:-0.0910503 2:0.0980392 3:0.0335088 4:-0.106103 5:-0.0999749 6:-0.139833 7:-0.160196 8:-0.248522 9:-0.194596 10:-0.174895 11:-0.204266 12:-0.184312 13:-0.190836 14:-0.197224 15:-0.181163 16:-0.178337 17:-0.183718 18:-0.154941 19:-0.146768 20:-0.153317 21:-0.141901 22:-0.132408 23:-0.123437 24:-0.111492 25:-0.111164 26:-0.106527 27:-0.09977 28:-0.097561 29:-0.10399 30:-0.106146 31:-0.103109 32:-0.101736 33:-0.122637 34:-0.116955 35:-0.114958 36:-0.10662 37:-0.0922807 38:-0.0773284 39:-0.0781876 40:-0.0972689 41:-0.0997568 42:-0.0990567 43:-0.0931072 44:-0.0913814 45:-0.0885935 46:-0.0829889 47:-0.0799781 48:-0.0734911 49:-0.0808394 50:-0.0826949 51:-0.0881456 52:-0.084511 53:-0.0824054 54:-0.100731 55:-0.100614 56:-0.104067 57:-0.109138 58:-0.10794 59:-0.11079 60:-0.108469 61:-0.11436 62:-0.118452 63:-0.125133 64:-0.120574 65:-0.117546 66:-0.117506 67:-0.110613 68:-0.109809 69:-0.104474 70:-0.106416 71:-0.107036 72:-0.106153 73:-0.105058 74:-0.110981 75:-0.111914 76:-0.110529 77:-0.11249 78:-0.118312 79:-0.121188 80:-0.122511 81:-0.127587 82:-0.127314 83:-0.135049 84:-0.13841 85:-0.135436 86:-0.130605 87:-0.132992 88:-0.133608 89:-0.136357 90:-0.128992 91:-0.122988 92:-0.12149 93:-0.120786 94:-0.121764 95:-0.123134 96:-0.123792 97:-0.12485 98:-0.125568 99:-0.12519 100:-0.128263 101:-0.126808 102:-0.129265 103:-0.127163 104:-0.125368 
-0.1461520104235076 -0.1343641715917971 -0.06376005119482003 -0.1384825689902799 -0.2050908199838526 -5.645915443837448 -0.1342727224569125 -0.2037799704828488 0.009336179904023132 1:-0.0999806 2:0.137255 3:0.0526278 4:-0.101864 5:-0.158452 6:-0.159952 7:-0.181151 8:-0.290941 9:-0.266159 10:-0.23025 11:-0.256671 12:-0.22709 13:-0.244705 14:-0.229342 15:-0.217348 16:-0.200966 17:-0.198042 18:-0.17471 19:-0.168413 20:-0.162579 21:-0.150126 22:-0.140356 23:-0.135163 24:-0.125655 25:-0.120708 26:-0.119036 27:-0.114813 28:-0.114393 29:-0.116832 30:-0.113965 31:-0.112576 32:-0.112703 33:-0.113251 34:-0.124624 35:-0.126245 36:-0.132343 37:-0.129343 38:-0.120428 39:-0.115503 40:-0.115112 41:-0.11591 42:-0.114068 43:-0.11086 44:-0.109731 45:-0.106392 46:-0.103125 47:-0.0976687 48:-0.106801 49:-0.102188 50:-0.102815 51:-0.104245 52:-0.101598 53:-0.0989883 54:-0.0958036 55:-0.095827 56:-0.107023 57:-0.114501 58:-0.118236 59:-0.117051 60:-0.11687 61:-0.116053 62:-0.11214 63:-0.116306 64:-0.114038 65:-0.113452 66:-0.114191 67:-0.105612 68:-0.104076 69:-0.101357 70:-0.0987687 71:-0.102699 72:-0.105619 73:-0.116342 74:-0.116594 75:-0.115865 76:-0.120128 77:-0.119733 78:-0.119229 79:-0.117761 80:-0.117329 81:-0.119446 82:-0.119015 83:-0.125608 84:-0.124241 85:-0.123461 86:-0.119873 87:-0.116914 88:-0.11742 89:-0.115402 90:-0.107695 91:-0.101894 92:-0.101372 93:-0.0993035 94:-0.100215 95:-0.102613 96:-0.109117 97:-0.109773 98:-0.110538 99:-0.113467 100:-0.116845 101:-0.119068 102:-0.116911 103:-0.123919 104:-0.12286 
-0.2352388862473437 -0.2156642811305737 -0.3634572103683141 -0.2181685269806694 -0.3360784587555306 -0 -0.2141251817408318 -0.4747514719762655 0.3082936217936593 1:0.105028 2:0.239819 3:0.241144 4:0.0455838 5:0.064447 6:0.0459903 7:-0.115172 8:-0.106447 9:-0.0836376 10:-0.0535499 11:-0.0785309 12:-0.0619495 13:-0.0818188 14:-0.0749628 15:-0.0545921 16:-0.0378122 17:-0.034029 18:-0.00601182 19:-0.00593704 20:0.00339744 21:0.0146686 22:0.0242083 23:0.0332977 24:0.0439117 25:0.0447265 26:0.049708 27:0.0552515 28:0.0398536 29:0.025082 30:0.0303083 31:0.0325205 32:0.0313497 33:0.0299961 34:0.0204769 35:0.0176068 36:0.0305078 37:0.0455568 38:0.0588955 39:0.0597823 40:0.0565911 41:0.0575027 42:0.053131 43:0.0472498 44:0.0422594 45:0.0489676 46:0.0532432 47:0.0583839 48:0.0610501 49:0.0531845 50:0.0492388 51:0.0489163 52:0.0539396 53:0.0552064 54:0.0492057 55:0.0374943 56:0.0327321 57:0.0285736 58:0.0315461 59:0.0330361 60:0.0301478 61:0.0181951 62:0.020006 63:0.0193166 64:0.0210505 65:0.0182817 66:0.0135662 67:0.0194032 68:0.0223947 69:0.0282428 70:0.0335428 71:0.0292217 72:0.0248963 73:0.0189638 74:0.0192515 75:0.0161229 76:0.0164902 77:0.0170178 78:0.0185385 79:0.0209628 80:0.0152206 81:0.0158345 82:0.00383432 83:0.0014733 84:0.00719994 85:0.00861812 86:0.00541847 87:0.00380744 88:0.0037215 89:0.00606033 90:0.0142676 91:0.0223195 92:0.022215 93:0.0253209 94:0.0240021 95:0.0204534 96:0.0190388 97:0.0183304 98:0.0194121 99:0.018035 100:0.0172355 101:0.0208944 102:0.0175212 103:0.0193321 104:0.0193043 
-0.1920920664757133 -0.1777449787569002 -0.2237098778744255 -0.1777543847613997 -0.2797640515682228 -0 -0.1770981277860128 -0 0.03188002629209414 1:0.0262085 2:0.417798 3:0.344636 4:0.0894505 5:0.0997203 6:0.104192 7:-0.115064 8:-0.0850881 9:-0.0277783 10:0.00206618 11:0.0153469 12:0.0364492 13:0.0461878 14:0.0540848 15:0.0581767 16:0.0360924 17:0.0447613 18:0.0724177 19:0.060333 20:0.0589721 21:0.0720324 22:0.0801578 23:0.0904018 24:0.0964329 25:0.101904 26:0.10347 27:0.108151 28:0.102022 29:0.0835398 30:0.085496 31:0.0573283 32:0.0407124 33:0.0317969 34:0.0373721 35:0.0314965 36:0.0184027 37:0.0386214 38:0.0534929 39:0.0433508 40:0.0461938 41:0.048068 42:0.042434 43:0.0495242 44:0.0499828 45:0.0548686 46:0.0593144 47:0.0655668 48:0.0675675 49:0.0692166 50:0.0707408 51:0.0703058 52:0.0638947 53:0.0615292 54:0.0601132 55:0.0572626 56:0.0586907 57:0.0583235 58:0.0590371 59:0.0506495 60:0.0528472 61:0.0498961 62:0.0562753 63:0.0582869 64:0.0656685 65:0.0684581 66:0.0746877 67:0.0794022 68:0.0790837 69:0.0770625 70:0.0757962 71:0.0768757 72:0.0766525 73:0.0766531 74:0.0790667 75:0.0800799 76:0.082186 77:0.0827846 78:0.0767197 79:0.0785215 80:0.0784372 81:0.0717512 82:0.0671368 83:0.0619993 84:0.0682735 85:0.0711828 86:0.0712243 87:0.0685791 88:0.067607 89:0.0644463 90:0.0723043 91:0.0753525 92:0.0749537 93:0.072051 94:0.0635448 95:0.0613656 96:0.0620787 97:0.0634975 98:0.061856 99:0.0586922 100:0.0558541 101:0.0586217 102:0.0598508 103:0.0560855 104:0.0561371 
-0 -0 -0 -0 -0 -0.1959704608839028 -0 -0 0 1:0.222287 2:0.309201 3:0.373004 4:0.188073 5:0.185738 6:0.184179 7:-0.098036 8:0.00446345 9:0.0542945 10:0.0467713 11:0.066573 12:0.0847063 13:0.108346 14:0.119821 15:0.13626 16:0.152542 17:0.150647 18:0.168478 19:0.176189 20:0.174119 21:0.185655 22:0.198155 23:0.203752 24:0.214297 25:0.200966 26:0.201239 27:0.161569 28:0.161818 29:0.168001 30:0.169706 31:0.15146 32:0.13642 33:0.129439 34:0.125401 35:0.124146 36:0.131541 37:0.14994 38:0.171032 39:0.168648 40:0.173452 41:0.169966 42:0.174408 43:0.178593 44:0.177199 45:0.18673 46:0.178506 47:0.164057 48:0.16233 49:0.167357 50:0.168644 51:0.158723 52:0.167094 53:0.170967 54:0.167598 55:0.170435 56:0.165142 57:0.1646 58:0.164937 59:0.168415 60:0.169856 61:0.164135 62:0.158518 63:0.15221 64:0.156665 65:0.153836 66:0.163437 67:0.172256 68:0.174063 69:0.181595 70:0.186874 71:0.185745 72:0.185961 73:0.179503 74:0.17648 75:0.177012 76:0.171208 77:0.172083 78:0.174769 79:0.178143 80:0.176148 81:0.172122 82:0.164476 83:0.161356 84:0.160709 85:0.158969 86:0.161299 87:0.152144 88:0.150822 89:0.147794 90:0.150203 91:0.158366 92:0.161384 93:0.162166 94:0.164838 95:0.163871 96:0.165396 97:0.164029 98:0.163119 99:0.164711 100:0.164437 101:0.171014 102:0.169649 103:0.164159 104:0.162485 
-0.4813467009388588 -0.4428295483270641 -0.6439902459666061 -0.4453156353201947 -0.6934117395425485 -0.3910046887376323 -0.4405631603274938 -1.276692319345245 0.337359766740122 1:0.268492 2:0.31825 3:0.408056 4:0.259749 5:0.261238 6:0.19582 7:-0.00240908 8:0.0776623 9:0.133945 10:0.163095 11:0.195822 12:0.222433 13:0.23001 14:0.186924 15:0.197197 16:0.211306 17:0.224932 18:0.219976 19:0.224113 20:0.232588 21:0.238301 22:0.252462 23:0.258536 24:0.27025 25:0.243713 26:0.242553 27:0.24727 28:0.247949 29:0.232455 30:0.234819 31:0.233825 32:0.232573 33:0.226993 34:0.227546 35:0.229472 36:0.23259 37:0.24384 38:0.26217 39:0.26433 40:0.250926 41:0.242669 42:0.240936 43:0.236121 44:0.241382 45:0.240022 46:0.247139 47:0.253582 48:0.248585 49:0.242946 50:0.244177 51:0.228248 52:0.23164 53:0.234128 54:0.231848 55:0.228605 56:0.224341 57:0.218962 58:0.219155 59:0.218705 60:0.215265 61:0.198423 62:0.203338 63:0.206412 64:0.21529 65:0.217581 66:0.227745 67:0.237224 68:0.238276 69:0.245977 70:0.243859 71:0.240462 72:0.235889 73:0.235292 74:0.230318 75:0.214818 76:0.217686 77:0.210697 78:0.210614 79:0.214171 80:0.213524 81:0.214179 82:0.217624 83:0.209922 84:0.200903 85:0.204875 86:0.211753 87:0.214136 88:0.215226 89:0.219224 90:0.230106 91:0.235296 92:0.237409 93:0.240043 94:0.241803 95:0.241307 96:0.241937 97:0.244286 98:0.238006 99:0.237789 100:0.234515 101:0.23392 102:0.236206 103:0.237121 104:0.238113 
-0.5063088285664641 -0.4776811978347264 -0.9249090593611394 -0.479983340408948 -0.6451762987235349 -0 -0.5000496101604253 -0.6147906574388194 -0 1:-0.287129 2:-0.677225 3:-0.682754 4:-0.225752 5:-0.43329 6:-0.373053 7:-0.339599 8:-0.30971 9:-0.40913 10:-0.385836 11:-0.367333 12:-0.348954 13:-0.340844 14:-0.333259 15:-0.324605 16:-0.319775 17:-0.311491 18:-0.298013 19:-0.297889 20:-0.295049 21:-0.285063 22:-0.279462 23:-0.273305 24:-0.270317 25:-0.268423 26:-0.283159 27:-0.278809 28:-0.278012 29:-0.276136 30:-0.276183 31:-0.274457 32:-0.272897 33:-0.274047 34:-0.270069 35:-0.270378 36:-0.264151 37:-0.253184 38:-0.241529 39:-0.238218 40:-0.239041 41:-0.237562 42:-0.237269 43:-0.23364 44:-0.232844 45:-0.229407 46:-0.225782 47:-0.22084 48:-0.219817 49:-0.21908 50:-0.218981 51:-0.220971 52:-0.217293 53:-0.218191 54:-0.218426 55:-0.219782 56:-0.221174 57:-0.221175 58:-0.221129 59:-0.220396 60:-0.221119 61:-0.222073 62:-0.217598 63:-0.217015 64:-0.211395 65:-0.212464 66:-0.208128 67:-0.203354 68:-0.199443 69:-0.197041 70:-0.194615 71:-0.194331 72:-0.195194 73:-0.19637 74:-0.196265 75:-0.197003 76:-0.19734 77:-0.196979 78:-0.198874 79:-0.198034 80:-0.199894 81:-0.201374 82:-0.200056 83:-0.199774 84:-0.195894 85:-0.195007 86:-0.193171 87:-0.191309 88:-0.193197 89:-0.191525 90:-0.186233 91:-0.181489 92:-0.182204 93:-0.182294 94:-0.181997 95:-0.183548 96:-0.184257 97:-0.18495 98:-0.184914 99:-0.183952 100:-0.184055 101:-0.181724 102:-0.181062 103:-0.179437 104:-0.17583 
-0.04914144860131794 -0.06268359940399079 -0.4032657392927895 -0.06325671001283859 -0.05980064001616693 -0 -0.0005367324519798851 -0.08048373987940495 -0 1:-0.228499 2:-0.625943 3:-0.68583 4:-0.223121 5:-0.307115 6:-0.285073 7:-0.278762 8:-0.278575 9:-0.380922 10:-0.377735 11:-0.361202 12:-0.345649 13:-0.329368 14:-0.322901 15:-0.312465 16:-0.308443 17:-0.305858 18:-0.289699 19:-0.284968 20:-0.285172 21:-0.279389 22:-0.269376 23:-0.269366 24:-0.264517 25:-0.260876 26:-0.270675 27:-0.273733 28:-0.278857 29:-0.273786 30:-0.273457 31:-0.270854 32:-0.270652 33:-0.271141 34:-0.267497 35:-0.268125 36:-0.258856 37:-0.248157 38:-0.235932 39:-0.233888 40:-0.232568 41:-0.235021 42:-0.235319 43:-0.22963 44:-0.230491 45:-0.225827 46:-0.223171 47:-0.218227 48:-0.215674 49:-0.213181 50:-0.21515 51:-0.215669 52:-0.213292 53:-0.214432 54:-0.21462 55:-0.214769 56:-0.216412 57:-0.216465 58:-0.216089 59:-0.216104 60:-0.216863 61:-0.21867 62:-0.215403 63:-0.213966 64:-0.209847 65:-0.208262 66:-0.20445 67:-0.199833 68:-0.196883 69:-0.194158 70:-0.191418 71:-0.191146 72:-0.191721 73:-0.19435 74:-0.193506 75:-0.194275 76:-0.193907 77:-0.194821 78:-0.195749 79:-0.194572 80:-0.196452 81:-0.19716 82:-0.196643 83:-0.1965 84:-0.193383 85:-0.192028 86:-0.18994 87:-0.188824 88:-0.189862 89:-0.188559 90:-0.183012 91:-0.178975 92:-0.17922 93:-0.179081 94:-0.179139 95:-0.180812 96:-0.180739 97:-0.181 98:-0.18131 99:-0.180429 100:-0.18121 101:-0.17834 102:-0.177472 103:-0.175852 104:-0.172552 
-0.2128972997824005 -0.1880051933741904 -0 -0.1881674090614059 -0.2833205136566978 -0 -0.2255374500156277 -0.2418108445626589 -0 1:-0.251019 2:-0.698341 3:-0.691328 4:-0.222966 5:-0.290043 6:-0.285497 7:-0.279178 8:-0.292249 9:-0.378847 10:-0.365028 11:-0.34234 12:-0.329194 13:-0.314882 14:-0.315544 15:-0.312572 16:-0.302384 17:-0.303755 18:-0.282435 19:-0.283272 20:-0.283612 21:-0.276824 22:-0.270992 23:-0.265169 24:-0.26053 25:-0.257624 26:-0.267524 27:-0.267042 28:-0.265495 29:-0.264028 30:-0.262216 31:-0.260067 32:-0.258939 33:-0.259391 34:-0.255962 35:-0.254207 36:-0.247686 37:-0.236947 38:-0.223175 39:-0.223485 40:-0.225103 41:-0.225179 42:-0.224241 43:-0.220837 44:-0.220303 45:-0.217812 46:-0.212476 47:-0.209633 48:-0.210169 49:-0.209593 50:-0.209677 51:-0.211415 52:-0.20787 53:-0.209479 54:-0.20985 55:-0.209843 56:-0.211406 57:-0.213076 58:-0.211291 59:-0.212159 60:-0.211578 61:-0.213084 62:-0.210154 63:-0.208301 64:-0.205426 65:-0.205238 66:-0.20109 67:-0.196353 68:-0.193771 69:-0.191879 70:-0.18824 71:-0.188789 72:-0.188503 73:-0.190051 74:-0.188837 75:-0.190956 76:-0.190216 77:-0.191053 78:-0.191903 79:-0.191461 80:-0.192324 81:-0.194861 82:-0.193596 83:-0.193496 84:-0.190666 85:-0.18859 86:-0.186791 87:-0.187034 88:-0.18737 89:-0.187184 90:-0.18093 91:-0.178699 92:-0.178599 93:-0.178706 94:-0.178428 95:-0.180115 96:-0.180504 97:-0.180772 98:-0.18076 99:-0.17982 100:-0.179947 101:-0.178157 102:-0.176662 103:-0.175578 104:-0.171745 
-0.2988795806143448 -0.2815451346210072 -0.04067084596038212 -0.2825829182198719 -0.3458214171601794 -0 -0.280351213215174 -0.3590887565512999 -0 1:-0.305766 2:-0.692308 3:-0.691256 4:-0.22103 5:-0.287879 6:-0.28197 7:-0.269458 8:-0.267914 9:-0.381343 10:-0.366779 11:-0.342432 12:-0.32903 13:-0.325438 14:-0.312725 15:-0.309838 16:-0.299714 17:-0.301143 18:-0.279823 19:-0.280711 20:-0.282177 21:-0.272657 22:-0.26692 23:-0.265219 24:-0.256642 25:-0.258542 26:-0.257196 27:-0.269527 28:-0.267786 29:-0.26615 30:-0.261968 31:-0.262597 32:-0.26131 33:-0.259438 34:-0.25836 35:-0.259861 36:-0.255564 37:-0.244626 38:-0.232017 39:-0.228436 40:-0.229213 41:-0.22698 42:-0.228021 43:-0.224484 44:-0.22182 45:-0.221358 46:-0.215899 47:-0.212936 48:-0.212052 49:-0.211389 50:-0.212188 51:-0.212117 52:-0.212701 53:-0.213615 54:-0.213226 55:-0.214676 56:-0.21456 57:-0.217067 58:-0.218408 59:-0.217653 60:-0.218504 61:-0.21804 62:-0.21458 63:-0.213976 64:-0.209635 65:-0.209016 66:-0.204191 67:-0.199389 68:-0.196577 69:-0.194146 70:-0.190448 71:-0.191236 72:-0.192087 73:-0.192064 74:-0.191961 75:-0.192154 76:-0.192502 77:-0.192157 78:-0.193239 79:-0.192751 80:-0.193567 81:-0.195483 82:-0.195218 83:-0.194436 84:-0.190551 85:-0.189459 86:-0.187501 87:-0.185962 88:-0.186954 89:-0.186265 90:-0.179991 91:-0.176551 92:-0.176451 93:-0.176558 94:-0.176282 95:-0.177859 96:-0.178588 97:-0.178494 98:-0.178401 99:-0.178333 100:-0.177916 101:-0.175586 102:-0.174515 103:-0.173428 104:-0.169602 
-0 -0 -0 -0 -0 -7.335105591364583 -0 -0 -6.400204482051259 1:-0.250243 2:-0.622926 3:-0.661814 4:-0.220989 5:-0.362932 6:-0.322763 7:-0.304453 8:-0.295342 9:-0.374987 10:-0.360782 11:-0.348729 12:-0.339828 13:-0.328915 14:-0.31832 15:-0.318012 16:-0.309282 17:-0.302709 18:-0.28311 19:-0.280416 20:-0.284155 21:-0.281493 22:-0.280355 23:-0.275287 24:-0.268978 25:-0.269789 26:-0.291483 27:-0.28856 28:-0.286233 29:-0.283753 30:-0.285057 31:-0.281827 32:-0.279758 33:-0.278379 34:-0.276582 35:-0.273972 36:-0.26442 37:-0.259317 38:-0.247342 39:-0.244555 40:-0.242786 41:-0.242238 42:-0.240687 43:-0.235752 44:-0.237003 45:-0.23208 46:-0.228224 47:-0.224923 48:-0.220066 49:-0.217369 50:-0.2201 51:-0.22148 52:-0.217638 53:-0.218378 54:-0.216856 55:-0.219733 56:-0.219448 57:-0.222799 58:-0.220739 59:-0.22133 60:-0.220481 61:-0.221318 62:-0.218738 63:-0.218011 64:-0.212255 65:-0.21187 66:-0.208261 67:-0.203366 68:-0.200669 69:-0.196876 70:-0.194157 71:-0.193307 72:-0.195281 73:-0.195159 74:-0.196138 75:-0.195931 76:-0.196179 77:-0.19585 78:-0.197659 79:-0.197071 80:-0.197776 81:-0.199744 82:-0.198349 83:-0.196963 84:-0.195055 85:-0.193453 86:-0.19054 87:-0.190275 88:-0.190815 89:-0.190006 90:-0.184633 91:-0.179811 92:-0.180459 93:-0.179551 94:-0.180467 95:-0.182067 96:-0.182638 97:-0.181824 98:-0.18229 99:-0.182152 100:-0.181418 101:-0.178174 102:-0.177467 103:-0.176303 104:-0.172948 
